|--- most_freq_protocol <= 0.50
|   |--- length_range <= 109.00
|   |   |--- payload_length_mean <= 736.00
|   |   |   |--- class: attack
|   |   |--- payload_length_mean >  736.00
|   |   |   |--- class: attack
|   |--- length_range >  109.00
|   |   |--- payload_length_median <= 1402.25
|   |   |   |--- class: attack
|   |   |--- payload_length_median >  1402.25
|   |   |   |--- class: attack
|--- most_freq_protocol >  0.50
|   |--- class: normal
